SVM-light Version V6.02
0 # kernel type
3 # kernel parameter -d 
1 # kernel parameter -g 
1 # kernel parameter -s 
1 # kernel parameter -r 
empty# kernel parameter -u 
308 # highest feature index 
258 # number of training documents 
141 # number of support vectors plus 1 
0.99943845 # threshold b, each following line is a SV (starting with alpha*y)
-0.074582416212054858384306044172263 95:1 #
-0.59381293469676976748417018825421 195:1 #
-0.44979149920337985202323238809186 29:1 240:1 #
-0.59381293469676976748417018825421 47:1 195:1 #
0.59381293469676976748417018825421 41:1 45:1 119:1 #
0.4828693765533127457700857121381 160:1 229:1 #
0.28149724702937950482350970560219 105:1 158:1 200:1 #
0.172031106919206699945590344214 43:1 195:1 217:1 #
-0.45616134060521845716706934581453 45:1 119:1 139:1 #
-0.59381293469676976748417018825421 45:1 160:1 #
-0.59381293469676976748417018825421 166:1 229:1 #
-0.59381293469676976748417018825421 176:1 217:1 #
-0.59381293469676976748417018825421 43:1 #
0.59381293469676976748417018825421 47:1 139:1 195:1 #
0.59381293469676976748417018825421 95:1 #
0.59381293469676976748417018825421 195:1 #
0.51629057875976047675692370830802 23:1 195:1 #
-0.59381293469676976748417018825421 47:1 195:1 #
-0.59381293469676976748417018825421 195:1 #
-0.59381293469676976748417018825421 135:1 195:1 #
0.25421863099441333044836710541858 44:1 114:1 115:1 201:1 202:1 #
0.59381293469676976748417018825421 29:1 65:1 158:1 #
0.067224272262391485122101641991321 3:1 69:1 83:1 194:1 #
-0.20116023753458001088745277229464 95:1 174:1 176:1 #
-0.35672079436598946866610049255542 112:1 113:1 160:1 168:1 201:1 #
-0.55763578592710327797021818696521 102:1 167:1 #
-0.29826568971746336700334722991101 95:1 208:1 #
-0.59381293469676976748417018825421 139:1 160:1 #
0.59381293469676976748417018825421 45:1 269:1 #
0.30341972631688612915823455296049 45:1 101:1 102:1 103:1 155:1 174:1 #
0.59381293469676976748417018825421 135:1 195:1 #
0.54802168079633029051933590380941 9:1 41:1 45:1 176:1 183:1 #
-0.59381293469676976748417018825421 135:1 195:1 #
-0.59381293469676976748417018825421 45:1 #
-0.59381293469676976748417018825421 269:1 #
0.1014510289071131887705945473499 124:1 127:1 128:1 160:1 167:1 206:1 #
0.59381293469676976748417018825421 160:1 206:1 #
0.59381293469676976748417018825421 18:1 43:1 97:1 139:1 154:1 #
0.10863098252624614481476328364806 117:1 118:1 139:1 200:1 220:1 #
0.59381293469676976748417018825421 156:1 160:1 217:1 #
-0.59381293469676976748417018825421 101:1 160:1 173:1 #
-0.59381293469676976748417018825421 206:1 #
-0.59381293469676976748417018825421 139:1 154:1 #
0.59381293469676976748417018825421 166:1 195:1 #
0.32719206868979161528798726976675 59:1 115:1 119:1 195:1 #
0.59381293469676976748417018825421 195:1 #
0.59381293469676976748417018825421 1:1 30:1 195:1 #
-0.59381293469676976748417018825421 195:1 #
-0.59381293469676976748417018825421 47:1 195:1 #
0.59381293469676976748417018825421 49:1 129:1 143:1 162:1 173:1 230:1 #
0.59381293469676976748417018825421 204:1 #
0.59381293469676976748417018825421 134:1 180:1 #
0.59381293469676976748417018825421 28:1 178:1 232:1 #
0.59381293469676976748417018825421 92:1 93:1 151:1 188:1 #
-0.59381293469676976748417018825421 1:1 20:1 30:1 #
-0.00033123048167810198449956260446925 1:1 30:1 #
-0.59381293469676976748417018825421 97:1 #
0.59381293469676976748417018825421 135:1 160:1 195:1 #
0.59381293469676976748417018825421 195:1 #
0.59381293469676976748417018825421 229:1 #
0.59381293469676976748417018825421 157:1 302:1 #
-0.20202296526348748062495985777787 80:1 160:1 #
-0.59381293469676976748417018825421 160:1 #
-0.59381293469676976748417018825421 43:1 #
-0.59381293469676976748417018825421 200:1 #
0.59381293469676976748417018825421 159:1 222:1 #
0.49670165319942299886335490555211 107:1 108:1 161:1 223:1 303:1 #
0.59381293469676976748417018825421 154:1 171:1 203:1 #
0.41419069348612064240811037052481 98:1 99:1 111:1 167:1 175:1 #
-0.24654111324839045327195208301418 50:1 80:1 159:1 222:1 #
0.03156908708739326885339693262722 3:1 44:1 60:1 79:1 194:1 #
-0.56167962995301112805179855058668 143:1 162:1 303:1 #
-0.30582387140490968624462198022229 35:1 94:1 154:1 #
-0.08250495353824090216665609887059 37:1 74:1 174:1 175:1 228:1 #
0.59381293469676976748417018825421 20:1 97:1 103:1 160:1 #
0.59381293469676976748417018825421 43:1 #
0.59381293469676976748417018825421 200:1 305:1 #
0.20030823875441647330397643145261 45:1 88:1 160:1 229:1 #
0.29865977546130262343382355538779 103:1 155:1 208:1 #
-0.18094654433497764367544391461706 88:1 #
-0.59381293469676976748417018825421 103:1 164:1 224:1 #
0.59381293469676976748417018825421 109:1 162:1 163:1 #
0.47613718769701018906914669059915 40:1 46:1 120:1 174:1 #
0.59381293469676976748417018825421 128:1 144:1 #
0.59381293469676976748417018825421 206:1 #
-0.59381293469676976748417018825421 #
-0.59381293469676976748417018825421 109:1 #
-0.33190160002337570910313502281497 119:1 175:1 #
0.59381293469676976748417018825421 103:1 226:1 #
0.59381293469676976748417018825421 181:1 183:1 210:1 #
0.34514651507196958402090558593045 139:1 169:1 170:1 201:1 225:1 304:1 #
-0.59381293469676976748417018825421 226:1 #
0.59381293469676976748417018825421 194:1 #
0.59381293469676976748417018825421 194:1 #
0.27643183192062803499311485211365 84:1 194:1 #
0.13830855070376738003012917488377 89:1 116:1 141:1 194:1 #
-0.59381293469676976748417018825421 162:1 #
-0.59381293469676976748417018825421 178:1 #
-0.59381293469676976748417018825421 28:1 #
-0.59381293469676976748417018825421 232:1 #
0.59381293469676976748417018825421 12:1 104:1 156:1 #
0.59381293469676976748417018825421 90:1 91:1 199:1 #
0.22211764506300285537676586500311 91:1 106:1 160:1 199:1 #
-0.59381293469676976748417018825421 51:1 96:1 199:1 #
-0.41421832404245895187244741464383 12:1 39:1 #
-0.089518380912598893850429249141598 12:1 97:1 219:1 #
0.20085578393135800068236562765378 103:1 178:1 179:1 231:1 #
0.39648999801609019488779495077324 96:1 152:1 153:1 200:1 220:1 #
-0.59381293469676976748417018825421 45:1 #
0.32333665878299150397978678483923 39:1 44:1 46:1 154:1 #
0.37902219061270780997574547654949 51:1 99:1 110:1 201:1 #
0.18215161212383090827415799139999 51:1 98:1 99:1 199:1 #
-0.58690740327901713691005625150865 60:1 183:1 #
-0.59381293469676976748417018825421 188:1 #
0.59381293469676976748417018825421 8:1 229:1 #
-0.39200508640307540897396165746613 8:1 115:1 278:1 #
-0.24825177812597770676816821833199 174:1 292:1 #
-0.16994427731880434873090734981815 19:1 141:1 #
-0.59381293469676976748417018825421 #
-0.5049570147475269665804376018059 97:1 #
-0.00071136726607101685715406347298995 279:1 #
-0.59381293469676976748417018825421 #
0.17203110691920658892328788169834 145:1 195:1 217:1 #
0.29564159666561945494223095920461 102:1 118:1 195:1 #
-0.59381293469676976748417018825421 #
0.021796723400772211043374682049034 2:1 3:1 24:1 25:1 83:1 136:1 194:1 #
0.077584371226753989780888787208823 20:1 91:1 107:1 172:1 173:1 227:1 283:1 #
0.056021091835469133402014563216653 96:1 99:1 172:1 200:1 283:1 #
0.031534068251759361789510194284958 29:1 91:1 141:1 302:1 #
0.27367444659472073276162973343162 19:1 29:1 229:1 #
-0.59381293469676976748417018825421 #
-0.59381293469676976748417018825421 #
0.070899394464202819543530154078326 44:1 117:1 118:1 305:1 #
-0.089627428067601044858747627586126 19:1 #
-0.38182331813171610512824827310396 #
-0.13272620268247126151806014604517 119:1 #
-0.00063637260320481559006111638154835 58:1 #
-0.014559237010914660714888668735512 19:1 #
-0.020366140096181456486945648975961 88:1 95:1 136:1 #
-0.0035090491303272908218957581993891 #
