SVM-light Version V6.02
0 # kernel type
3 # kernel parameter -d 
1 # kernel parameter -g 
1 # kernel parameter -s 
1 # kernel parameter -r 
empty# kernel parameter -u 
3226 # highest feature index 
400 # number of training documents 
239 # number of support vectors plus 1 
0.738376 # threshold b, each following line is a SV (starting with alpha*y)
-0.029833554245846966024302560072101 2:1 3:1 4:1 5:1 6:1 7:1 8:1 10:1 11:1 12:1 #
-0.02230493238407256842426029663784 18:1 24:1 25:1 26:1 27:1 29:1 31:1 32:1 34:1 36:1 37:1 38:1 40:1 #
-0.072508224251132125104390979686286 42:1 43:1 44:1 #
-0.010762655478176560291947438940952 3:1 84:1 179:1 512:1 516:1 966:1 967:1 969:1 #
-0.096502287396598093738298018706701 6:1 34:1 60:1 61:1 62:1 63:1 65:1 66:1 67:1 68:1 69:1 70:1 #
0.096502287396598093738298018706701 6:1 12:1 14:1 15:1 16:1 17:1 18:1 21:1 22:1 #
0.096502287396598093738298018706701 6:1 65:1 81:1 89:1 90:1 93:1 95:1 271:1 #
0.065462719502853039532652701382176 34:1 68:1 103:1 139:1 328:1 365:1 448:1 2000:1 2002:1 2004:1 #
0.078599679172287661987894580306602 6:1 97:1 105:1 107:1 108:1 109:1 110:1 111:1 112:1 113:1 114:1 115:1 116:1 117:1 #
0.096502287396598093738298018706701 18:1 103:1 159:1 160:1 #
-0.064356462206361791933417748623469 6:1 12:1 18:1 24:1 84:1 97:1 172:1 185:1 203:1 271:1 1155:1 1262:1 1586:1 1652:1 #
-0.026072184944193707578641294730915 14:1 18:1 65:1 263:1 1120:1 1130:1 1205:1 1206:1 1207:1 1208:1 1209:1 #
-0.096502287396598093738298018706701 17:1 27:1 65:1 97:1 122:1 152:1 271:1 401:1 405:1 443:1 470:1 594:1 1088:1 1261:1 1274:1 1275:1 #
-0.02406787781169401896352866287998 6:1 14:1 217:1 225:1 362:1 401:1 436:1 863:1 865:1 866:1 867:1 868:1 870:1 872:1 873:1 #
-0.063634644339458479311844030235079 89:1 97:1 214:1 424:1 995:1 1669:1 1670:1 1673:1 #
0.096502287396598093738298018706701 27:1 34:1 54:1 113:1 296:1 401:1 437:1 778:1 985:1 1089:1 1520:1 1521:1 #
0.096502287396598093738298018706701 3:1 11:1 24:1 138:1 386:1 465:1 974:1 975:1 976:1 978:1 979:1 #
0.096502287396598093738298018706701 3:1 63:1 164:1 241:1 547:1 637:1 1437:1 1688:1 1689:1 #
0.096502287396598093738298018706701 14:1 24:1 34:1 69:1 369:1 594:1 674:1 928:1 929:1 930:1 931:1 #
0.086770962096925335904629150718392 3:1 6:1 11:1 24:1 63:1 178:1 214:1 240:1 268:1 526:1 532:1 547:1 637:1 913:1 1005:1 1007:1 1008:1 1009:1 1010:1 #
-0.065330797935033962930972961657972 3:1 6:1 16:1 24:1 84:1 143:1 386:1 465:1 518:1 532:1 591:1 592:1 594:1 595:1 598:1 #
-0.046044537455196071773499966184318 3:1 14:1 113:1 268:1 324:1 662:1 664:1 665:1 666:1 667:1 668:1 669:1 #
-0.0054746325253156877602145335970363 3:1 14:1 24:1 298:1 465:1 906:1 1137:1 1252:1 2066:1 2067:1 2068:1 2069:1 2070:1 #
-0.0056496105823713744370495604130156 3:1 24:1 34:1 138:1 160:1 224:1 225:1 1264:1 1352:1 1386:1 1504:1 2083:1 2084:1 2086:1 2087:1 #
-0.096502287396598093738298018706701 3:1 24:1 34:1 80:1 185:1 465:1 513:1 532:1 913:1 1026:1 1028:1 1029:1 1030:1 #
0.096502287396598093738298018706701 6:1 65:1 66:1 84:1 199:1 214:1 263:1 298:1 391:1 1388:1 1390:1 1391:1 #
0.096502287396598093738298018706701 6:1 53:1 54:1 97:1 398:1 401:1 442:1 443:1 444:1 512:1 513:1 903:1 1088:1 1258:1 1259:1 #
0.096502287396598093738298018706701 14:1 65:1 66:1 84:1 97:1 120:1 223:1 324:1 342:1 400:1 411:1 465:1 473:1 1067:1 1068:1 1069:1 #
0.096502287396598093738298018706701 3:1 6:1 17:1 24:1 27:1 65:1 84:1 126:1 152:1 216:1 225:1 401:1 438:1 531:1 1259:1 1271:1 #
0.096502287396598093738298018706701 6:1 84:1 85:1 97:1 99:1 126:1 734:1 1042:1 1043:1 1045:1 1046:1 1047:1 1049:1 #
-0.096502287396598093738298018706701 6:1 16:1 84:1 164:1 179:1 1229:1 1230:1 1231:1 1234:1 1235:1 1259:1 #
-0.016903502987356430059540102206483 6:1 11:1 126:1 145:1 164:1 177:1 178:1 179:1 185:1 423:1 674:1 678:1 708:1 #
-0.062384080361588968577368774504066 6:1 126:1 401:1 404:1 594:1 674:1 1047:1 1548:1 1549:1 1550:1 1551:1 1552:1 #
-0.086173540350421073963360640846076 6:1 11:1 164:1 199:1 423:1 436:1 674:1 675:1 676:1 678:1 679:1 680:1 #
-0.042386579284875221251827071000662 6:1 18:1 50:1 53:1 398:1 401:1 442:1 443:1 444:1 505:1 510:1 512:1 513:1 #
0.096502287396598093738298018706701 3:1 24:1 122:1 164:1 465:1 506:1 518:1 532:1 913:1 918:1 1405:1 1532:1 1533:1 1534:1 2418:1 #
0.096502287396598093738298018706701 18:1 24:1 27:1 185:1 376:1 386:1 391:1 465:1 506:1 532:1 913:1 1088:1 #
0.096502287396598093738298018706701 24:1 60:1 97:1 105:1 120:1 185:1 465:1 1088:1 1137:1 1916:1 1917:1 1919:1 #
0.096502287396598093738298018706701 3:1 6:1 24:1 63:1 268:1 389:1 465:1 913:1 1022:1 1504:1 1580:1 1581:1 1582:1 #
0.096502287396598093738298018706701 3:1 24:1 506:1 1433:1 1434:1 1435:1 1437:1 1439:1 1442:1 1443:1 #
-0.0096385188939684448422573481707332 3:1 22:1 24:1 27:1 84:1 385:1 389:1 391:1 446:1 465:1 1012:1 1420:1 1421:1 #
-0.016870547306855401825664841908292 3:1 7:1 84:1 194:1 241:1 391:1 392:1 616:1 908:1 995:1 1821:1 1822:1 1823:1 #
-0.043433678253839577698691698515177 24:1 63:1 216:1 465:1 975:1 1348:1 1401:1 1449:1 1513:1 #
-0.038826724368942980292196409664029 3:1 24:1 27:1 34:1 84:1 126:1 241:1 402:1 411:1 434:1 506:1 1121:1 1279:1 1348:1 1499:1 1500:1 1501:1 #
-0.034499617998898599036117218474828 271:1 2057:1 2060:1 2132:1 2133:1 2134:1 2135:1 2136:1 #
0.096502287396598093738298018706701 6:1 59:1 126:1 152:1 164:1 179:1 185:1 712:1 1231:1 2082:1 #
0.096502287396598093738298018706701 6:1 177:1 178:1 179:1 181:1 182:1 183:1 185:1 187:1 #
0.096502287396598093738298018706701 6:1 11:1 16:1 27:1 59:1 84:1 138:1 185:1 298:1 369:1 405:1 594:1 #
0.055660501092473273210270434674385 18:1 34:1 68:1 103:1 139:1 448:1 921:1 1995:1 1996:1 1997:1 1998:1 1999:1 #
-0.012963699708525689910376677005388 3:1 6:1 27:1 68:1 223:1 413:1 1022:1 1023:1 1137:1 1447:1 1591:1 1873:1 1875:1 1876:1 #
-0.096502287396598093738298018706701 6:1 11:1 16:1 27:1 59:1 84:1 138:1 185:1 298:1 369:1 405:1 594:1 #
-0.096502287396598093738298018706701 6:1 177:1 178:1 179:1 181:1 182:1 183:1 185:1 187:1 #
-0.096502287396598093738298018706701 6:1 11:1 63:1 185:1 531:1 547:1 1110:1 1112:1 #
-0.02783426236585578861237877390522 813:1 814:1 #
0.096502287396598093738298018706701 18:1 24:1 84:1 188:1 189:1 190:1 191:1 192:1 194:1 196:1 197:1 198:1 199:1 #
0.096502287396598093738298018706701 3:1 11:1 21:1 84:1 178:1 364:1 517:1 848:1 850:1 #
0.096502287396598093738298018706701 3:1 11:1 84:1 99:1 214:1 416:1 473:1 734:1 753:1 1012:1 1013:1 1015:1 1016:1 1017:1 1018:1 1019:1 #
0.096502287396598093738298018706701 16:1 24:1 974:1 981:1 982:1 983:1 984:1 #
0.096502287396598093738298018706701 18:1 24:1 164:1 241:1 396:1 532:1 534:1 538:1 539:1 541:1 542:1 543:1 544:1 #
-0.096502287396598093738298018706701 3:1 18:1 24:1 68:1 84:1 103:1 119:1 396:1 984:1 1638:1 1639:1 1643:1 1644:1 #
-0.096502287396598093738298018706701 17:1 18:1 27:1 68:1 84:1 103:1 270:1 391:1 497:1 1137:1 1275:1 1653:1 1655:1 1656:1 1657:1 #
-0.010150409855127415920117428527192 65:1 84:1 131:1 625:1 626:1 627:1 628:1 630:1 632:1 #
-0.054445518879720912475139726893758 24:1 59:1 65:1 68:1 107:1 120:1 378:1 532:1 534:1 545:1 546:1 547:1 549:1 551:1 552:1 #
-0.0029161820233517612988016765029897 18:1 68:1 78:1 84:1 128:1 129:1 130:1 131:1 132:1 135:1 137:1 138:1 139:1 140:1 141:1 #
0.096502287396598093738298018706701 3:1 6:1 12:1 66:1 105:1 185:1 203:1 271:1 547:1 1690:1 #
0.096502287396598093738298018706701 3:1 6:1 365:1 652:1 1311:1 1312:1 1314:1 1315:1 1316:1 1318:1 1319:1 #
0.096502287396598093738298018706701 6:1 27:1 34:1 85:1 87:1 107:1 263:1 401:1 437:1 557:1 566:1 1250:1 1275:1 1384:1 1386:1 1387:1 #
-0.013373078684670894680786012997942 214:1 513:1 1658:1 1659:1 1660:1 1661:1 1662:1 1663:1 1664:1 #
-0.096502287396598093738298018706701 296:1 778:1 1089:1 1528:1 #
-0.077309570475433103675655388542509 6:1 18:1 138:1 214:1 563:1 643:1 1250:1 1627:1 1630:1 1632:1 #
-0.088103908787966547788705895527528 6:1 34:1 236:1 340:1 365:1 2024:1 2025:1 2026:1 2028:1 2029:1 2030:1 #
-0.041696780578760278546113227093883 3:1 6:1 27:1 82:1 97:1 259:1 439:1 753:1 989:1 1363:1 1364:1 1365:1 1367:1 1368:1 #
0.096502287396598093738298018706701 6:1 24:1 68:1 84:1 107:1 126:1 127:1 164:1 370:1 405:1 510:1 529:1 532:1 955:1 #
0.096502287396598093738298018706701 6:1 18:1 24:1 27:1 34:1 84:1 164:1 361:1 405:1 411:1 436:1 529:1 530:1 531:1 532:1 534:1 535:1 536:1 537:1 #
-0.046038665753415142223303746504826 138:1 185:1 369:1 370:1 371:1 378:1 379:1 380:1 381:1 382:1 #
0.00077845113015881286372410485796536 34:1 68:1 84:1 103:1 164:1 167:1 391:1 750:1 782:1 1751:1 1752:1 1753:1 1754:1 1755:1 1756:1 1757:1 #
0.096502287396598093738298018706701 17:1 68:1 93:1 163:1 171:1 172:1 738:1 766:1 788:1 837:1 838:1 #
-0.096502287396598093738298018706701 3:1 18:1 24:1 27:1 65:1 66:1 84:1 126:1 164:1 225:1 298:1 405:1 420:1 1702:1 1703:1 1704:1 #
-0.096502287396598093738298018706701 11:1 84:1 107:1 164:1 185:1 298:1 526:1 #
-0.047112858927801093411602550986572 6:1 24:1 34:1 68:1 84:1 263:1 337:1 532:1 600:1 601:1 602:1 603:1 #
-0.050016686387074224540150169104891 24:1 34:1 164:1 272:1 347:1 348:1 349:1 350:1 352:1 353:1 354:1 356:1 358:1 #
0.096502287396598093738298018706701 3:1 138:1 144:1 185:1 369:1 637:1 1691:1 #
0.096502287396598093738298018706701 3:1 65:1 84:1 185:1 285:1 504:1 1437:1 1901:1 1902:1 1914:1 1915:1 #
0.096502287396598093738298018706701 6:1 24:1 66:1 1368:1 1713:1 1714:1 1715:1 1716:1 1717:1 1719:1 1720:1 #
0.096502287396598093738298018706701 6:1 24:1 66:1 89:1 178:1 389:1 1715:1 1951:1 1952:1 #
0.096502287396598093738298018706701 63:1 114:1 911:1 912:1 913:1 #
-0.096502287396598093738298018706701 3:1 24:1 63:1 164:1 185:1 285:1 506:1 532:1 700:1 1691:1 1694:1 #
-0.089385265244736583634121984687226 138:1 185:1 369:1 370:1 371:1 372:1 373:1 375:1 376:1 #
-0.040488369958673928183934265234711 3:1 65:1 84:1 194:1 436:1 473:1 572:1 628:1 637:1 700:1 1114:1 1115:1 1116:1 1118:1 #
-0.096502287396598093738298018706701 24:1 34:1 54:1 66:1 122:1 913:1 1295:1 1296:1 1297:1 1298:1 1300:1 1302:1 1303:1 #
-0.032938724528070340014096473169047 3:1 6:1 122:1 405:1 606:1 607:1 609:1 610:1 612:1 614:1 615:1 616:1 1088:1 #
0.096502287396598093738298018706701 11:1 84:1 107:1 164:1 185:1 298:1 526:1 #
0.096502287396598093738298018706701 6:1 11:1 24:1 27:1 65:1 66:1 405:1 891:1 892:1 895:1 #
0.082900834890745095373532080884615 18:1 24:1 63:1 84:1 103:1 164:1 194:1 214:1 695:1 697:1 699:1 #
0.061572420641594516332872899511131 18:1 34:1 84:1 103:1 321:1 779:1 780:1 782:1 783:1 #
-0.096502287396598093738298018706701 11:1 84:1 107:1 164:1 185:1 298:1 526:1 #
-0.033160717093566383084635162958875 11:1 78:1 79:1 80:1 81:1 82:1 84:1 85:1 87:1 88:1 #
-0.012368980457414557524997711368542 6:1 84:1 224:1 365:1 496:1 766:1 805:1 943:1 948:1 1063:1 1258:1 1476:1 1477:1 1479:1 #
-0.047438976303477549401055313182951 6:1 18:1 63:1 84:1 113:1 120:1 214:1 396:1 465:1 566:1 591:1 674:1 848:1 1088:1 1496:1 1497:1 1498:1 #
-0.096502287396598093738298018706701 3:1 6:1 11:1 34:1 68:1 84:1 103:1 221:1 232:1 473:1 574:1 661:1 753:1 1012:1 1352:1 1353:1 1354:1 #
0.096502287396598093738298018706701 17:1 24:1 1018:1 1338:1 1339:1 1342:1 1343:1 #
-0.096502287396598093738298018706701 17:1 24:1 190:1 274:1 276:1 277:1 278:1 #
-0.058098576652315332691234317508133 6:1 18:1 24:1 389:1 1022:1 1034:1 1394:1 #
-0.069314005612761464547588730056304 6:1 24:1 84:1 126:1 386:1 389:1 595:1 913:1 1243:1 1424:1 1425:1 1426:1 1427:1 1428:1 #
-0.015235030205615486542658487678636 6:1 24:1 27:1 152:1 194:1 225:1 389:1 391:1 902:1 916:1 1087:1 1877:1 1878:1 1879:1 1880:1 #
0.096502287396598093738298018706701 3:1 14:1 60:1 84:1 87:1 138:1 185:1 369:1 504:1 637:1 700:1 1437:1 1901:1 1902:1 1903:1 #
0.096502287396598093738298018706701 6:1 66:1 107:1 296:1 436:1 594:1 887:1 955:1 1049:1 1115:1 1715:1 1735:1 #
-0.045966153369164160225057713660135 14:1 18:1 63:1 84:1 162:1 494:1 504:1 621:1 1013:1 1149:1 1245:1 1247:1 1248:1 1249:1 1250:1 1251:1 #
-0.051666850890903087689665085235902 84:1 89:1 194:1 208:1 209:1 211:1 214:1 215:1 #
-0.010190389860665392471328338785952 3:1 6:1 11:1 65:1 84:1 504:1 1064:1 1553:1 1758:1 1760:1 1762:1 1763:1 #
-0.075799958300770409191926546554896 6:1 224:1 437:1 465:1 1060:1 1061:1 1063:1 1064:1 1065:1 #
-0.064088826645687602123757642402779 34:1 84:1 89:1 194:1 437:1 465:1 572:1 573:1 574:1 576:1 577:1 580:1 #
0.096502287396598093738298018706701 8:1 68:1 103:1 492:1 494:1 #
0.04376020176541028233740959763054 7:1 34:1 103:1 581:1 582:1 583:1 586:1 #
0.017099323570039681730037273155176 34:1 103:1 234:1 558:1 559:1 560:1 562:1 563:1 564:1 #
0.096502287396598093738298018706701 34:1 84:1 103:1 1957:1 1959:1 #
-0.019208489462340279374519269595112 68:1 416:1 633:1 634:1 635:1 636:1 637:1 639:1 640:1 642:1 643:1 644:1 #
-0.017515842756325401829986532220573 24:1 190:1 681:1 682:1 683:1 684:1 685:1 686:1 687:1 #
-0.096502287396598093738298018706701 401:1 #
-0.053138250173348638982773195493792 12:1 14:1 27:1 185:1 203:1 271:1 420:1 455:1 1591:1 1592:1 #
0.096502287396598093738298018706701 6:1 63:1 84:1 90:1 114:1 913:1 1826:1 #
-0.096502287396598093738298018706701 6:1 8:1 887:1 948:1 #
-0.030911850462819318724472239523493 18:1 60:1 185:1 379:1 710:1 1226:1 #
-0.041146204851663557844343444003243 24:1 928:1 1007:1 1211:1 1213:1 1214:1 1215:1 1216:1 #
-0.035317489362577135503240555181037 24:1 34:1 65:1 97:1 238:1 263:1 281:1 1506:1 1557:1 1559:1 1560:1 1561:1 1562:1 1563:1 1564:1 #
-0.028208788404510180825024434625448 11:1 18:1 24:1 114:1 191:1 1264:1 1369:1 1370:1 1373:1 1374:1 1376:1 #
0.096502287396598093738298018706701 3:1 14:1 21:1 27:1 97:1 105:1 405:1 566:1 778:1 1075:1 1261:1 1967:1 #
0.096502287396598093738298018706701 17:1 163:1 167:1 838:1 #
0.085438794543666915504154246718826 17:1 34:1 84:1 135:1 163:1 164:1 200:1 201:1 202:1 203:1 204:1 205:1 #
0.096502287396598093738298018706701 6:1 17:1 27:1 69:1 90:1 401:1 1016:1 1678:1 1983:1 1984:1 1985:1 #
-0.039736587422564945137892777893285 14:1 84:1 120:1 496:1 642:1 1018:1 1328:1 1329:1 1331:1 1332:1 1333:1 1334:1 1335:1 1337:1 #
-0.029700568511865317600229019490143 3:1 11:1 27:1 113:1 152:1 405:1 436:1 444:1 473:1 662:1 811:1 928:1 1939:1 1940:1 #
-0.019940921177273231157389687950854 3:1 24:1 84:1 364:1 389:1 390:1 448:1 1782:1 1784:1 1785:1 1786:1 #
-0.038998343934573451163849711065268 3:1 220:1 392:1 565:1 566:1 567:1 568:1 570:1 #
0.050772300535473963156718468781037 103:1 236:1 730:1 773:1 774:1 775:1 776:1 #
0.042697674737259078137086021342839 3:1 18:1 84:1 89:1 103:1 164:1 577:1 1320:1 1324:1 1326:1 #
-0.024792261191329698077900900443638 11:1 12:1 27:1 63:1 84:1 241:1 361:1 1103:1 1729:1 1731:1 1732:1 1733:1 #
-0.056752608842606779016026763429181 97:1 746:1 861:1 862:1 #
-0.031792453235640796838090693654522 12:1 24:1 66:1 216:1 401:1 406:1 439:1 504:1 746:1 1106:1 1255:1 1256:1 1257:1 1258:1 1259:1 1260:1 1261:1 1262:1 1263:1 1264:1 #
-0.021511729949745542894712357906428 24:1 287:1 288:1 289:1 290:1 291:1 292:1 293:1 294:1 295:1 296:1 297:1 #
-0.062024718771843415088262929657503 214:1 340:1 341:1 342:1 346:1 #
0.016720321703579347355494988391911 6:1 34:1 84:1 103:1 162:1 519:1 1988:1 1989:1 1990:1 1991:1 #
0.045454556283958426343705383487759 3:1 18:1 34:1 103:1 738:1 1953:1 1955:1 1956:1 #
0.081136387414999344702692951614154 6:1 84:1 103:1 958:1 1748:1 1750:1 #
0.096502287396598093738298018706701 103:1 #
-0.023006473397929001756256894850594 6:1 84:1 402:1 618:1 718:1 719:1 720:1 721:1 722:1 723:1 724:1 725:1 726:1 #
0.093070487737568541319888026919216 3:1 6:1 66:1 105:1 185:1 203:1 263:1 271:1 547:1 1333:1 1690:1 #
-0.037906450468445859747212978163589 3:1 6:1 24:1 272:1 401:1 403:1 405:1 443:1 566:1 1083:1 1084:1 1085:1 1087:1 1088:1 1089:1 1091:1 #
-0.021902653355797108147839935554657 3:1 18:1 24:1 71:1 107:1 127:1 337:1 401:1 405:1 488:1 989:1 1175:1 1195:1 1377:1 1380:1 1381:1 1382:1 1383:1 #
-0.041547048246294002171730141981243 6:1 18:1 24:1 223:1 389:1 874:1 958:1 959:1 961:1 #
-0.043581094142783764755488817854712 3:1 6:1 68:1 97:1 113:1 465:1 1068:1 1145:1 1309:1 1605:1 1606:1 1608:1 1610:1 #
0.096502287396598093738298018706701 103:1 1746:1 #
0.079968987594060791934680310077965 103:1 233:1 1780:1 1788:1 1790:1 #
0.096502287396598093738298018706701 103:1 963:1 1837:1 1838:1 #
0.029791303353693437266924703976656 34:1 103:1 232:1 236:1 765:1 766:1 767:1 #
-0.043948202936090703663030154757507 3:1 34:1 119:1 362:1 411:1 436:1 537:1 745:1 985:1 987:1 989:1 #
-0.062672963639999218488085830358614 3:1 1945:1 1947:1 1948:1 1950:1 #
-0.021854964087938435340907616932782 3:1 27:1 238:1 243:1 508:1 867:1 1050:1 1052:1 1053:1 1054:1 1056:1 1058:1 #
-0.096502287396598093738298018706701 813:1 814:1 #
0.091000767279715927271510622631467 6:1 27:1 66:1 138:1 185:1 369:1 405:1 531:1 913:1 1465:1 1466:1 #
-0.0092088506332225449069195377660435 24:1 77:1 126:1 152:1 225:1 431:1 517:1 1479:1 1817:1 1818:1 1819:1 #
0.059925562177738651847835882335858 17:1 34:1 93:1 163:1 164:1 172:1 832:1 833:1 834:1 #
0.019146447729021062733600899719022 6:1 24:1 59:1 65:1 90:1 97:1 98:1 103:1 436:1 438:1 1425:1 1493:1 1494:1 #
-0.036449814486975512517474840024079 6:1 59:1 145:1 700:1 701:1 702:1 703:1 704:1 706:1 707:1 #
-0.02042204755554409209561406157718 6:1 12:1 27:1 216:1 350:1 361:1 436:1 1128:1 1137:1 1458:1 1459:1 1462:1 1463:1 1464:1 #
-0.05891270113963077009744395695634 6:1 18:1 24:1 126:1 970:1 971:1 972:1 973:1 #
-0.077024143908741446451493573022162 27:1 84:1 1611:1 1613:1 1614:1 #
-0.086671058950691673428146089008806 14:1 17:1 34:1 46:1 47:1 48:1 50:1 53:1 54:1 56:1 66:1 68:1 84:1 120:1 398:1 513:1 603:1 #
-0.029403338014537441780227311483031 3:1 6:1 24:1 31:1 34:1 65:1 272:1 389:1 402:1 405:1 411:1 473:1 537:1 1070:1 1071:1 1072:1 1073:1 1074:1 1075:1 1076:1 #
-0.055442465809813754051837975111994 185:1 310:1 323:1 324:1 326:1 328:1 #
-0.018151865091374251581779475372969 3:1 34:1 65:1 82:1 84:1 120:1 256:1 370:1 437:1 438:1 510:1 955:1 1145:1 1153:1 1248:1 1480:1 1483:1 #
-0.036491973274037511898448826741514 3:1 22:1 27:1 113:1 142:1 143:1 144:1 145:1 147:1 149:1 150:1 151:1 152:1 153:1 #
-0.054507860442112671117698141642904 84:1 454:1 506:1 1137:1 1724:1 1726:1 #
-0.015802396483679252703336004515222 2:1 3:1 27:1 82:1 107:1 122:1 256:1 405:1 406:1 408:1 409:1 410:1 411:1 413:1 #
-0.022227735662317057302450606925959 3:1 27:1 405:1 436:1 595:1 1883:1 1884:1 1885:1 1886:1 1887:1 1888:1 #
-0.023024098056783612320508325410628 3:1 6:1 27:1 59:1 63:1 68:1 87:1 225:1 365:1 443:1 465:1 506:1 700:1 1041:1 1088:1 1294:1 1476:1 1565:1 1566:1 #
-0.021063600858005886856672006501867 3:1 6:1 24:1 252:1 396:1 436:1 512:1 1792:1 1793:1 1794:1 1795:1 1797:1 1798:1 1799:1 1800:1 #
-0.003510669016462608302275860694408 3:1 59:1 122:1 138:1 181:1 182:1 183:1 369:1 513:1 946:1 985:1 1088:1 1596:1 2242:1 #
-0.080246861350203910201450696604297 3:1 1487:1 1553:1 1555:1 #
-0.052719498166960226948063450436166 65:1 1906:1 1908:1 1909:1 1910:1 #
-0.01255839121651075585006651635922 24:1 84:1 97:1 217:1 814:1 922:1 955:1 1171:1 1769:1 1772:1 1773:1 1774:1 #
-0.027336325121533701365539315020214 225:1 361:1 887:1 1252:1 1253:1 1254:1 #
-0.018576055439603035568385536180358 138:1 221:1 1116:1 2103:1 2105:1 2106:1 2107:1 2108:1 2109:1 2110:1 2111:1 2113:1 #
-0.022339839081866940534437659948708 14:1 62:1 126:1 214:1 594:1 609:1 615:1 903:1 904:1 905:1 906:1 908:1 909:1 1088:1 #
-0.029136127670117344806710590887633 3:1 6:1 8:1 224:1 870:1 1411:1 1412:1 1413:1 1414:1 1415:1 1416:1 #
-0.052020145584602231481063938645093 3:1 24:1 268:1 389:1 1911:1 #
0.074068350638325813894979887663794 103:1 554:1 556:1 557:1 #
0.073083127265076583412017896534962 103:1 144:1 235:1 236:1 237:1 #
-0.030716911674471505944161719980912 6:1 18:1 49:1 65:1 330:1 332:1 333:1 335:1 337:1 338:1 2540:1 #
-0.016049421483939230181903212724137 2046:1 2047:1 2049:1 2051:1 2052:1 2053:1 2054:1 2055:1 2056:1 2057:1 2059:1 2060:1 #
-0.096502287396598093738298018706701 97:1 746:1 755:1 #
-0.020664134367870099634467706550822 350:1 365:1 496:1 1763:1 1802:1 1805:1 #
0.085816778158401330056648248501006 34:1 103:1 1744:1 1745:1 #
-0.023644548829630827185832586678771 3:1 14:1 18:1 122:1 144:1 442:1 443:1 531:1 887:1 918:1 921:1 1120:1 1130:1 1228:1 #
-0.023538769904886444606084694441961 3:1 185:1 214:1 941:1 943:1 944:1 945:1 946:1 947:1 #
-0.039967077429208797134663200267823 65:1 1120:1 1182:1 1183:1 1184:1 #
0.026884646231978715641419697135461 34:1 68:1 103:1 139:1 204:1 448:1 690:1 692:1 693:1 694:1 #
0.032499021455685936365931354430359 103:1 171:1 172:1 2137:1 2138:1 #
-0.025993454062309594154722702796789 11:1 12:1 18:1 63:1 712:1 1434:1 1763:1 1942:1 1944:1 #
-0.058295276778818704010998175135683 24:1 724:1 1267:1 #
-0.0065282795951789804322906718425656 18:1 34:1 122:1 443:1 652:1 935:1 1186:1 1187:1 1189:1 1191:1 1192:1 1193:1 #
-0.057418342129016503028182683010527 6:1 24:1 138:1 177:1 178:1 179:1 185:1 372:1 975:1 2091:1 #
-0.042311034569911171177025721590326 6:1 24:1 34:1 43:1 84:1 258:1 389:1 395:1 1079:1 #
-0.025474651782594240345680702830578 11:1 24:1 955:1 1125:1 2061:1 2063:1 2064:1 2065:1 #
-0.050106350915523338585000345801745 6:1 59:1 82:1 84:1 1130:1 1153:1 #
-0.032314386897052550795539360706243 34:1 68:1 84:1 216:1 411:1 416:1 465:1 518:1 567:1 568:1 1583:1 2418:1 #
-0.046030638782792537844201774532849 3:1 12:1 24:1 122:1 185:1 203:1 241:1 263:1 385:1 532:1 874:1 1590:1 #
-0.025946799663191990464872205279789 24:1 1354:1 1465:1 2088:1 2089:1 2090:1 #
-0.012229209306070408166955409967613 24:1 27:1 84:1 281:1 365:1 405:1 438:1 1261:1 1506:1 1557:1 1597:1 1598:1 1599:1 1600:1 1601:1 #
-0.0093200226592740579439899661906566 24:1 34:1 54:1 65:1 135:1 285:1 420:1 504:1 515:1 671:1 679:1 1251:1 1818:1 1865:1 1894:1 #
-0.01594356839554199670172529579304 214:1 424:1 627:1 867:1 924:1 1666:1 1667:1 1668:1 #
-0.032939373150355832908786624102504 3:1 34:1 160:1 224:1 225:1 1352:1 1504:1 2084:1 2121:1 #
-0.0071377724590594906345364378807972 18:1 214:1 259:1 563:1 878:1 880:1 882:1 883:1 #
-0.012242431579400111021915797948623 6:1 11:1 24:1 27:1 272:1 918:1 989:1 1444:1 1445:1 1446:1 #
-0.05992177691898526586955497919007 6:1 177:1 178:1 179:1 181:1 182:1 183:1 185:1 187:1 #
-0.015288989075694505576086257292445 97:1 271:1 746:1 755:1 857:1 #
-0.0080143929442378636363031318978756 3:1 6:1 11:1 24:1 54:1 285:1 395:1 396:1 401:1 405:1 438:1 708:1 867:1 1348:1 1508:1 1509:1 1511:1 1512:1 #
0.040153582945100164958152078042986 3:1 34:1 103:1 239:1 319:1 321:1 #
0.068598952583233077651136966323975 34:1 103:1 234:1 559:1 #
-0.015868735766064644143735762327196 3:1 22:1 24:1 27:1 68:1 438:1 440:1 1720:1 1824:1 #
-0.0088206084805610828619704122388612 50:1 324:1 436:1 693:1 1647:1 1648:1 1650:1 #
-0.015074208626075447092773629265139 126:1 420:1 636:1 1576:1 1578:1 1579:1 #
-0.010371334200300678235473483823625 3:1 22:1 24:1 27:1 53:1 84:1 262:1 263:1 264:1 265:1 267:1 268:1 270:1 271:1 272:1 #
-0.017142519189106232568864385257257 14:1 60:1 68:1 324:1 1567:1 1568:1 1569:1 #
-0.0079909842131259747888272215732286 6:1 18:1 24:1 216:1 389:1 518:1 2011:1 2012:1 2013:1 2015:1 2017:1 #
0.028010959908917984484411078938138 84:1 103:1 164:1 1831:1 1833:1 #
-0.0023602528448742436661955679255698 3:1 31:1 84:1 225:1 1049:1 1072:1 1120:1 1194:1 1195:1 1198:1 2022:1 #
-0.0020178560425351808362004479846519 43:1 65:1 84:1 126:1 223:1 362:1 431:1 438:1 518:1 1516:1 1978:1 1979:1 1980:1 1981:1 1982:1 #
-0.0045691936900976492033632503364515 27:1 224:1 225:1 226:1 #
-0.0053944651160124420380403975627814 6:1 68:1 496:1 634:1 928:1 1304:1 1307:1 1309:1 1310:1 #
-0.0039082733079416941482375769112423 3:1 18:1 24:1 37:1 38:1 84:1 401:1 465:1 918:1 921:1 1230:1 1806:1 2022:1 #
-0.0044996312004080482593870726759633 14:1 68:1 84:1 1013:1 1149:1 1245:1 1247:1 1465:1 1678:1 #
-0.0024780781082252255342890379097298 11:1 24:1 27:1 31:1 34:1 126:1 144:1 224:1 387:1 884:1 885:1 887:1 888:1 889:1 #
0.004306584653977958178361351571084 103:1 164:1 805:1 810:1 811:1 812:1 #
-0.0040943323404398412543314655920312 179:1 392:1 953:1 1332:1 2114:1 #
-0.0022437082252484081071330912493522 3:1 14:1 18:1 24:1 77:1 84:1 379:1 387:1 466:1 477:1 532:1 862:1 1226:1 1357:1 1964:1 1965:1 #
-0.0025021053282610478118996866214729 24:1 185:1 310:1 312:1 314:1 315:1 316:1 #
0.0032810520577866396363386769507997 18:1 34:1 84:1 103:1 163:1 845:1 1829:1 #
